4 2 8 8 1 
-2.152308092831202 2.045509374262155 0.002892217609160483 1.2342775181271977 0.0 -1.7356641030200202 -1.30971577608596 -0.7643475436443143 ;-1.7311612580744953 2.0669955441327685 -2.431833086739194 1.1164147826952642 -0.7440416052691456 -1.231477927301005 -0.278915602201115 0.6057706039301038 ;0.8724858056473923 0.18967466366546604 0.692280144446807 0.26747176856255916 0.31845839820358157 0.6841574665096728 0.48013173720496827 -0.49128715423285874 
-10.746922835109988 -0.11990349276466088 -0.21874670719715683 0.6110348192174752 5.228590438609205 0.4468824434771208 -8.111243908008476 2.489344803605947 ;4.682215327580779 0.1126985905917465 -0.4486823467762523 -0.3255480429581483 -4.657741605450748 -0.0640559467847392 6.6404932224135385 -2.5112112138082017 ;-3.6310732227368168 0.2004008539930027 -0.6009264102880372 -0.3306457910347645 1.832606370316491 0.47337337857549877 -2.160733215280951 1.2909101273616699 ;2.390439705602086 0.40842385103383105 0.5887083956129039 -0.11194537920909199 -2.8406508845942535 -0.46515749536520884 3.9155001935907485 -0.7044964277029335 ;-1.3020520266556086 1.0063842383375075 -0.4623172611297348 -0.7571008091982743 0.48595145674752793 -0.4859594798203683 -0.6840254980775987 1.064281729987659 ;-5.305765944304405 -0.535064488466043 -0.651780666788015 0.011457064935736063 1.9971968875860584 0.22536286202780162 -3.252194832681448 2.26538065856024 ;-2.5493546437046306 -0.572810811357365 0.07474944823134316 -0.05556604712387627 1.922079096161391 0.9111567868795003 -0.9167718940142816 1.648445465340998 ;1.2610708950173908 0.02279760720363641 0.07435207748530882 -0.004756679697872803 -0.5198703458923326 -0.9470175404284648 -0.4809142226486124 -0.8956385330225557 ;0.12604551778446527 -0.8222579994809704 0.5853141173022434 0.5924101457860225 -0.2570743147240695 -0.8896915301615951 0.3108308686984278 -0.4346720638467201 
-8.653710342801384 ;3.1644780328827204 ;-0.12741932157687083 ;-0.06128211466366029 ;-2.9071344457354122 ;-0.4413580319110695 ;4.302311995207798 ;-2.3410720088589883 ;0.05473129351468242 
