5 2 8 8 8 1 
-2.712672080235084 0.05698150574842237 -1.6290419556018476 0.9551210971093895 0.3806645141037648 2.6320788230943073 0.5445387209714586 2.1549167066580877 ;1.4171622000597262 0.6091332541723746 -1.7900252906129839 -0.4059194961587532 -0.05805370626071139 -3.7635282208912186 -0.740073138352422 2.4276999893798292 ;-0.14074363706734472 0.6887929297658453 -0.23171001006147662 -0.04609194733024635 0.17723424789946485 -0.5637203179669141 -0.007000692550225063 -0.3896399453960355 
-1.526777447977575 -2.6386146060643956 -0.36763244758389807 1.0215119268305086 3.6338656099453925 0.6780949351145946 0.029787643576311956 0.22116512354357984 ;1.9383979235905147 -1.3392288758623672 0.7649736746664929 0.1599880029224029 -5.636875392536273 -0.7078197746306096 0.718203261988688 0.09477958129592391 ;-1.3814047965314844 1.8682753403976495 0.518420306441282 -0.2675563231532182 1.400951648123389 1.5888748829007582 0.22208684243894625 0.6893001753444469 ;1.2015957069155092 0.5494981600538729 -0.7918058300244769 -0.7795705743027934 0.6921235677493528 0.8292820404722352 -0.8784781514460498 -0.9423148880025162 ;0.0 -0.8022020501620291 -0.9553114294510878 -0.4792003972882465 -2.0563106735823617 0.8511068004373862 0.9006112857565263 -0.4084671061637713 ;-1.420236050901948 4.879568310463072 0.6777649305828537 -0.9324792256047816 3.6850817106154192 -0.08607270223701392 0.6266243606809415 0.8846541462576156 ;-0.036211990775893356 1.83675054028215 0.6605623566740528 -0.40576947339284103 -0.856644622449248 0.37161482833135595 0.06142782707549694 0.5977493393174859 ;-0.4591796570700036 0.13828121746694413 0.9572385893223798 0.4890561719777811 3.7757343262952303 -1.0715987305746872 0.4932038941897658 -0.002091164933019469 ;-0.19164292305388364 0.37386611181999085 -0.7031119162575223 0.8198237721227901 0.18297462207435133 -0.09727560254756695 -0.5942517009973411 0.8498095420321734 
1.782243828747342 1.9896760795928863 -2.2846950930070675 -3.707445108813384 4.590239141632653 -0.1588975947611922 -2.0257829114480583 -0.5092060177646782 ;-0.31487321282332764 0.27659421383213145 -1.4386865215886724 1.0440478177799155 1.284703878988699 -0.6652845226386079 -1.2276796685872502 0.5176319013974875 ;-0.4591189934205545 -0.5069436936382353 0.6995162462522403 0.682481940047145 -1.2090811481419668 -1.3482834887553377 2.132544766163008 0.463479771650092 ;-0.26157020555050436 1.5210464719430534 -1.6682204449407763 -0.24494964855066179 1.501663016274382 -0.2111864953555115 -2.890855678078452 -0.7798551027864028 ;-2.559722986810119 -3.7406446794349266 1.505383539559559 5.966909916434934 -6.571395449575601 -0.7396592393904375 4.156190609393831 1.1299410589526178 ;0.5863808346626116 2.5473209846664506 -0.4230798036885869 -2.4247549215213393 3.176985061107914 -0.23118218971056442 -2.152117370134544 0.8136196107056626 ;0.732571947282899 -2.1885487933595322 1.6034810147275775 1.139840379641883 -1.6919025600865403 -0.40323511680051877 1.8591615991794432 0.3898171997683628 ;-0.4659424464969929 1.5452976807175194 -1.5238103632717295 0.6216992421190757 0.39381315156239605 1.1029332884163667 -1.769940443776627 -0.06830983388104145 ;0.19312153274358268 -0.33309085392397253 0.6055430189267064 -0.37293651472722034 -0.1892333249783169 0.06732320543762449 0.5808306255441977 -0.07290677532589718 
-2.1208535462045046 ;-3.7601253762488547 ;2.3670518361404675 ;5.041391450726923 ;-6.798961958754048 ;-0.09149670083973295 ;4.222985101911957 ;0.43169206015208883 ;-0.08291954423277992 
