5 2 8 8 8 1 
1.6384202047446823 3.116341662168339 -1.2962777354520536 -1.1433171598172933 0.3651091682588459 -2.0254301611010743 -0.4565228310235974 0.6277364976823437 ;-3.222863138733242 -0.8076334127516359 -0.31015881358006114 -0.8678196006288011 -1.5187093639097105 -1.6028608185228188 -1.977099305127457 1.0334966536003949 ;-0.4161374909625142 0.1868678482733297 0.14335506171729762 -0.7541932815808128 -0.2641436628996159 0.34068673280301676 -0.4658776635953037 0.7406347691113373 
-0.9637193490928846 -0.729521823416686 0.0 -2.781310841511594 1.15817167271023 -3.9401142012985195 2.273398538915263 -0.6492821294137984 ;-0.028828679741217066 -0.6401144310771547 -1.519595948426742 4.642737159637276 -1.4298014409409252 4.742957217599486 1.7845820737357894 -0.9124961400323394 ;0.8807236545396153 0.465408521884533 1.1855520638764996 -2.5779073256113336 1.3570472326722378 -1.4910633985377126 0.0 -0.18477697724089287 ;-0.5344920639960586 -0.3592093089343855 -1.3724535403686442 -2.5944302057346067 1.6497678899844277 -6.096601630919043 -0.9709738283240754 0.33170228345819147 ;0.8946374711080047 -0.47380716781032506 -1.6384007821420323 -1.036989944116534 0.5722766109638343 -2.039010925209795 0.7724545089743987 0.0 ;-0.6728599853047637 -0.10815882885089849 -0.5652858380891126 -7.832254096747864 2.5472029444297872 -7.407809828964538 -0.7861501366959643 0.9751489478382287 ;0.7977566166058545 -0.680021875958768 -1.9780450990814915 -2.0868162566187287 0.5964399406768469 -6.614589665032702 1.1955304921708754 0.9805873718686222 ;-0.9898949272306667 0.6921481520700175 1.2862055060110604 1.3194432322944947 -0.5901806735154242 5.219538202616615 -0.48140381469306875 -0.7138249527070256 ;-0.7175812736954845 0.4956124642417219 -0.4111443052032884 -0.2323688295874129 0.10170363149703898 0.03999440140547961 -0.5516547191491015 -0.34227314961039434 
0.6743490481583837 -0.8599907062081599 -0.25716026788015334 0.37079089336003296 0.6577512599752129 1.5905546668958452 -2.433521797118657 0.0 ;0.8502333002059005 0.4367555715091442 -0.35388798441425756 0.3943694938079649 0.3697325441408778 -0.847812858358237 1.453766786284034 1.9154573985869212 ;0.6114570642634073 -2.1594171772129225 -0.23128970401604823 0.5125218040681437 0.4775417812482985 2.0480404789663638 0.0 -6.138358347583411 ;-1.0214983825127382 -4.7583962169036065 0.057717315878927006 0.49052015380189645 0.5356466237032596 5.369605341846169 -0.8943758310285301 3.32320219930994 ;-0.6436721780682685 1.843543783816072 -0.24827467942733827 0.15232663583037748 1.0212299783899137 -1.9272873193525373 1.3357046019129102 -0.13292662432979027 ;-1.0782859536001121 -4.398545754045775 0.09809652424391496 -0.4089038494791639 -0.2186901094083018 4.881427503164612 0.8790003563101545 -2.4791991257638943 ;0.8199585561363681 -1.6725127639792854 0.7962219831559207 0.7449642477690304 0.10233655559677358 2.833850656113279 -1.3410896976493099 -5.3174513608110665 ;-0.5795798775119293 0.7002585894336801 0.8724606912277041 -1.0380091849014594 -0.3161529358770129 -0.02836922061851879 -2.0781157906080043 0.0 ;-0.5496863052763603 -0.06641430659607184 -0.9471786561667093 0.6555135695357235 0.3694013612595095 0.07459160040353763 -0.3178079767467725 -0.07588497556686913 
-4.8719812346298115 ;-1.4482881022646463 ;-10.907656767482552 ;4.352202784212207 ;2.053292718643649 ;1.3520196686740322 ;2.050580584501055 ;-16.668275076292925 ;-0.07666420904188564 
